digraph Tree {
node [shape=box, style="rounded", color="black", fontname="helvetica"] ;
edge [fontname="helvetica"] ;
0 [label="Income <= 58.0\nsquared_error = 752.3\nsamples = 187\nvalue = 55.8"] ;
1 [label="Income <= 33.0\nsquared_error = 185.9\nsamples = 97\nvalue = 32.3"] ;
0 -> 1 [labeldistance=2.5, labelangle=45, headlabel="True"] ;
2 [label="Income <= 20.5\nsquared_error = 51.9\nsamples = 52\nvalue = 21.3"] ;
1 -> 2 ;
3 [label="Income <= 13.5\nsquared_error = 8.9\nsamples = 24\nvalue = 14.3"] ;
2 -> 3 ;
4 [label="Income <= 12.0\nsquared_error = 1.8\nsamples = 8\nvalue = 11.1"] ;
3 -> 4 ;
5 [label="Sales <= 15.3\nsquared_error = 0.2\nsamples = 5\nvalue = 10.2"] ;
4 -> 5 ;
6 [label="squared_error = 0.0\nsamples = 3\nvalue = 10.0"] ;
5 -> 6 ;
7 [label="squared_error = 0.0\nsamples = 2\nvalue = 11.0"] ;
5 -> 7 ;
8 [label="squared_error = 0.0\nsamples = 3\nvalue = 13.0"] ;
4 -> 8 ;
9 [label="Income <= 16.5\nsquared_error = 4.2\nsamples = 16\nvalue = 16.0"] ;
3 -> 9 ;
10 [label="Income <= 14.5\nsquared_error = 0.3\nsamples = 10\nvalue = 14.8"] ;
9 -> 10 ;
11 [label="squared_error = 0.0\nsamples = 3\nvalue = 14.0"] ;
10 -> 11 ;
12 [label="Education <= 14.0\nsquared_error = 0.1\nsamples = 7\nvalue = 15.1"] ;
10 -> 12 ;
13 [label="squared_error = 0.0\nsamples = 6\nvalue = 15.0"] ;
12 -> 13 ;
14 [label="squared_error = 0.0\nsamples = 1\nvalue = 16.0"] ;
12 -> 14 ;
15 [label="Income <= 19.0\nsquared_error = 1.7\nsamples = 6\nvalue = 18.8"] ;
9 -> 15 ;
16 [label="Population <= 328.5\nsquared_error = 0.2\nsamples = 3\nvalue = 17.5"] ;
15 -> 16 ;
17 [label="squared_error = 0.0\nsamples = 1\nvalue = 18.0"] ;
16 -> 17 ;
18 [label="squared_error = 0.0\nsamples = 2\nvalue = 17.0"] ;
16 -> 18 ;
19 [label="squared_error = 0.0\nsamples = 3\nvalue = 20.0"] ;
15 -> 19 ;
20 [label="Income <= 27.5\nsquared_error = 11.1\nsamples = 28\nvalue = 27.3"] ;
2 -> 20 ;
21 [label="Income <= 24.5\nsquared_error = 3.9\nsamples = 13\nvalue = 24.8"] ;
20 -> 21 ;
22 [label="Income <= 22.5\nsquared_error = 0.6\nsamples = 6\nvalue = 22.6"] ;
21 -> 22 ;
23 [label="Age <= 50.5\nsquared_error = 0.2\nsamples = 2\nvalue = 21.8"] ;
22 -> 23 ;
24 [label="squared_error = 0.0\nsamples = 1\nvalue = 21.0"] ;
23 -> 24 ;
25 [label="squared_error = 0.0\nsamples = 1\nvalue = 22.0"] ;
23 -> 25 ;
26 [label="Income <= 23.5\nsquared_error = 0.1\nsamples = 4\nvalue = 23.2"] ;
22 -> 26 ;
27 [label="squared_error = 0.0\nsamples = 3\nvalue = 23.0"] ;
26 -> 27 ;
28 [label="squared_error = 0.0\nsamples = 1\nvalue = 24.0"] ;
26 -> 28 ;
29 [label="Income <= 26.5\nsquared_error = 0.6\nsamples = 7\nvalue = 26.3"] ;
21 -> 29 ;
30 [label="Advertising <= 5.5\nsquared_error = 0.2\nsamples = 4\nvalue = 25.6"] ;
29 -> 30 ;
31 [label="squared_error = 0.0\nsamples = 1\nvalue = 26.0"] ;
30 -> 31 ;
32 [label="squared_error = 0.0\nsamples = 3\nvalue = 25.0"] ;
30 -> 32 ;
33 [label="squared_error = 0.0\nsamples = 3\nvalue = 27.0"] ;
29 -> 33 ;
34 [label="Income <= 30.5\nsquared_error = 2.2\nsamples = 15\nvalue = 30.4"] ;
20 -> 34 ;
35 [label="Income <= 28.5\nsquared_error = 0.5\nsamples = 6\nvalue = 28.9"] ;
34 -> 35 ;
36 [label="squared_error = 0.0\nsamples = 2\nvalue = 28.0"] ;
35 -> 36 ;
37 [label="CompPrice <= 143.0\nsquared_error = 0.2\nsamples = 4\nvalue = 29.3"] ;
35 -> 37 ;
38 [label="squared_error = 0.0\nsamples = 2\nvalue = 30.0"] ;
37 -> 38 ;
39 [label="squared_error = 0.0\nsamples = 2\nvalue = 29.0"] ;
37 -> 39 ;
40 [label="Income <= 31.5\nsquared_error = 0.2\nsamples = 9\nvalue = 31.6"] ;
34 -> 40 ;
41 [label="squared_error = 0.0\nsamples = 3\nvalue = 31.0"] ;
40 -> 41 ;
42 [label="squared_error = 0.0\nsamples = 6\nvalue = 32.0"] ;
40 -> 42 ;
43 [label="Income <= 47.0\nsquared_error = 44.5\nsamples = 45\nvalue = 44.8"] ;
1 -> 43 ;
44 [label="Income <= 40.5\nsquared_error = 12.3\nsamples = 26\nvalue = 40.4"] ;
43 -> 44 ;
45 [label="Income <= 37.5\nsquared_error = 5.3\nsamples = 15\nvalue = 37.9"] ;
44 -> 45 ;
46 [label="Income <= 35.5\nsquared_error = 1.2\nsamples = 7\nvalue = 35.2"] ;
45 -> 46 ;
47 [label="Income <= 34.5\nsquared_error = 0.2\nsamples = 5\nvalue = 34.2"] ;
46 -> 47 ;
48 [label="squared_error = 0.0\nsamples = 4\nvalue = 34.0"] ;
47 -> 48 ;
49 [label="squared_error = 0.0\nsamples = 1\nvalue = 35.0"] ;
47 -> 49 ;
50 [label="Population <= 338.0\nsquared_error = 0.2\nsamples = 2\nvalue = 36.2"] ;
46 -> 50 ;
51 [label="squared_error = 0.0\nsamples = 1\nvalue = 36.0"] ;
50 -> 51 ;
52 [label="squared_error = 0.0\nsamples = 1\nvalue = 37.0"] ;
50 -> 52 ;
53 [label="Income <= 39.5\nsquared_error = 0.4\nsamples = 8\nvalue = 39.6"] ;
45 -> 53 ;
54 [label="Income <= 38.5\nsquared_error = 0.2\nsamples = 3\nvalue = 38.8"] ;
53 -> 54 ;
55 [label="squared_error = 0.0\nsamples = 1\nvalue = 38.0"] ;
54 -> 55 ;
56 [label="squared_error = 0.0\nsamples = 2\nvalue = 39.0"] ;
54 -> 56 ;
57 [label="squared_error = 0.0\nsamples = 5\nvalue = 40.0"] ;
53 -> 57 ;
58 [label="Income <= 43.5\nsquared_error = 2.5\nsamples = 11\nvalue = 43.7"] ;
44 -> 58 ;
59 [label="Education <= 10.5\nsquared_error = 0.4\nsamples = 5\nvalue = 42.3"] ;
58 -> 59 ;
60 [label="squared_error = 0.0\nsamples = 2\nvalue = 43.0"] ;
59 -> 60 ;
61 [label="Age <= 40.5\nsquared_error = 0.1\nsamples = 3\nvalue = 41.8"] ;
59 -> 61 ;
62 [label="squared_error = 0.0\nsamples = 2\nvalue = 42.0"] ;
61 -> 62 ;
63 [label="squared_error = 0.0\nsamples = 1\nvalue = 41.0"] ;
61 -> 63 ;
64 [label="Income <= 45.5\nsquared_error = 0.7\nsamples = 6\nvalue = 45.1"] ;
58 -> 64 ;
65 [label="Sales <= 18.0\nsquared_error = 0.2\nsamples = 3\nvalue = 44.5"] ;
64 -> 65 ;
66 [label="squared_error = 0.0\nsamples = 1\nvalue = 44.0"] ;
65 -> 66 ;
67 [label="squared_error = 0.0\nsamples = 2\nvalue = 45.0"] ;
65 -> 67 ;
68 [label="squared_error = 0.0\nsamples = 3\nvalue = 46.0"] ;
64 -> 68 ;
69 [label="Income <= 52.5\nsquared_error = 7.8\nsamples = 19\nvalue = 52.5"] ;
43 -> 69 ;
70 [label="Income <= 49.0\nsquared_error = 2.4\nsamples = 10\nvalue = 50.1"] ;
69 -> 70 ;
71 [label="squared_error = 0.0\nsamples = 3\nvalue = 48.0"] ;
70 -> 71 ;
72 [label="Urban_Yes <= 0.5\nsquared_error = 0.7\nsamples = 7\nvalue = 51.0"] ;
70 -> 72 ;
73 [label="squared_error = 0.0\nsamples = 2\nvalue = 50.0"] ;
72 -> 73 ;
74 [label="Income <= 51.5\nsquared_error = 0.2\nsamples = 5\nvalue = 51.5"] ;
72 -> 74 ;
75 [label="squared_error = 0.0\nsamples = 3\nvalue = 51.0"] ;
74 -> 75 ;
76 [label="squared_error = 0.0\nsamples = 2\nvalue = 52.0"] ;
74 -> 76 ;
77 [label="Income <= 54.5\nsquared_error = 1.1\nsamples = 9\nvalue = 55.0"] ;
69 -> 77 ;
78 [label="Sales <= 13.5\nsquared_error = 0.2\nsamples = 3\nvalue = 53.3"] ;
77 -> 78 ;
79 [label="squared_error = 0.0\nsamples = 1\nvalue = 54.0"] ;
78 -> 79 ;
80 [label="squared_error = 0.0\nsamples = 2\nvalue = 53.0"] ;
78 -> 80 ;
81 [label="Income <= 55.5\nsquared_error = 0.2\nsamples = 6\nvalue = 55.5"] ;
77 -> 81 ;
82 [label="squared_error = 0.0\nsamples = 3\nvalue = 55.0"] ;
81 -> 82 ;
83 [label="squared_error = 0.0\nsamples = 3\nvalue = 56.0"] ;
81 -> 83 ;
84 [label="Income <= 79.5\nsquared_error = 150.7\nsamples = 90\nvalue = 80.6"] ;
0 -> 84 [labeldistance=2.5, labelangle=-45, headlabel="False"] ;
85 [label="Income <= 69.5\nsquared_error = 24.1\nsamples = 39\nvalue = 68.6"] ;
84 -> 85 ;
86 [label="Income <= 64.5\nsquared_error = 7.7\nsamples = 23\nvalue = 65.4"] ;
85 -> 86 ;
87 [label="Income <= 63.0\nsquared_error = 2.8\nsamples = 10\nvalue = 62.1"] ;
86 -> 87 ;
88 [label="Income <= 60.5\nsquared_error = 0.4\nsamples = 6\nvalue = 60.8"] ;
87 -> 88 ;
89 [label="squared_error = 0.0\nsamples = 2\nvalue = 60.0"] ;
88 -> 89 ;
90 [label="Advertising <= 10.5\nsquared_error = 0.2\nsamples = 4\nvalue = 61.2"] ;
88 -> 90 ;
91 [label="squared_error = 0.0\nsamples = 3\nvalue = 61.0"] ;
90 -> 91 ;
92 [label="squared_error = 0.0\nsamples = 1\nvalue = 62.0"] ;
90 -> 92 ;
93 [label="squared_error = 0.0\nsamples = 4\nvalue = 64.0"] ;
87 -> 93 ;
94 [label="Income <= 66.5\nsquared_error = 2.1\nsamples = 13\nvalue = 67.0"] ;
86 -> 94 ;
95 [label="Income <= 65.5\nsquared_error = 0.2\nsamples = 5\nvalue = 65.4"] ;
94 -> 95 ;
96 [label="squared_error = 0.0\nsamples = 3\nvalue = 65.0"] ;
95 -> 96 ;
97 [label="squared_error = 0.0\nsamples = 2\nvalue = 66.0"] ;
95 -> 97 ;
98 [label="Income <= 67.5\nsquared_error = 0.7\nsamples = 8\nvalue = 68.0"] ;
94 -> 98 ;
99 [label="squared_error = 0.0\nsamples = 2\nvalue = 67.0"] ;
98 -> 99 ;
100 [label="Income <= 68.5\nsquared_error = 0.2\nsamples = 6\nvalue = 68.5"] ;
98 -> 100 ;
101 [label="squared_error = 0.0\nsamples = 3\nvalue = 68.0"] ;
100 -> 101 ;
102 [label="squared_error = 0.0\nsamples = 3\nvalue = 69.0"] ;
100 -> 102 ;
103 [label="Income <= 74.5\nsquared_error = 6.7\nsamples = 16\nvalue = 73.8"] ;
85 -> 103 ;
104 [label="Income <= 72.0\nsquared_error = 2.6\nsamples = 9\nvalue = 72.4"] ;
103 -> 104 ;
105 [label="Income <= 70.5\nsquared_error = 0.2\nsamples = 6\nvalue = 70.3"] ;
104 -> 105 ;
106 [label="squared_error = 0.0\nsamples = 4\nvalue = 70.0"] ;
105 -> 106 ;
107 [label="squared_error = 0.0\nsamples = 2\nvalue = 71.0"] ;
105 -> 107 ;
108 [label="Population <= 265.0\nsquared_error = 0.2\nsamples = 3\nvalue = 73.5"] ;
104 -> 108 ;
109 [label="squared_error = 0.0\nsamples = 1\nvalue = 73.0"] ;
108 -> 109 ;
110 [label="squared_error = 0.0\nsamples = 2\nvalue = 74.0"] ;
108 -> 110 ;
111 [label="Income <= 76.5\nsquared_error = 2.7\nsamples = 7\nvalue = 76.8"] ;
103 -> 111 ;
112 [label="Income <= 75.5\nsquared_error = 0.2\nsamples = 3\nvalue = 75.2"] ;
111 -> 112 ;
113 [label="squared_error = 0.0\nsamples = 2\nvalue = 75.0"] ;
112 -> 113 ;
114 [label="squared_error = 0.0\nsamples = 1\nvalue = 76.0"] ;
112 -> 114 ;
115 [label="Sales <= 9.7\nsquared_error = 0.7\nsamples = 4\nvalue = 78.2"] ;
111 -> 115 ;
116 [label="Price <= 130.0\nsquared_error = 0.2\nsamples = 2\nvalue = 77.5"] ;
115 -> 116 ;
117 [label="squared_error = 0.0\nsamples = 1\nvalue = 78.0"] ;
116 -> 117 ;
118 [label="squared_error = 0.0\nsamples = 1\nvalue = 77.0"] ;
116 -> 118 ;
119 [label="squared_error = 0.0\nsamples = 2\nvalue = 79.0"] ;
115 -> 119 ;
120 [label="Income <= 87.5\nsquared_error = 36.1\nsamples = 51\nvalue = 90.6"] ;
84 -> 120 ;
121 [label="Income <= 82.5\nsquared_error = 3.8\nsamples = 16\nvalue = 83.0"] ;
120 -> 121 ;
122 [label="Sales <= 18.2\nsquared_error = 1.0\nsamples = 7\nvalue = 81.2"] ;
121 -> 122 ;
123 [label="squared_error = 0.0\nsamples = 4\nvalue = 80.0"] ;
122 -> 123 ;
124 [label="squared_error = 0.0\nsamples = 3\nvalue = 82.0"] ;
122 -> 124 ;
125 [label="Income <= 84.5\nsquared_error = 0.7\nsamples = 9\nvalue = 84.6"] ;
121 -> 125 ;
126 [label="Income <= 83.5\nsquared_error = 0.1\nsamples = 4\nvalue = 83.8"] ;
125 -> 126 ;
127 [label="squared_error = 0.0\nsamples = 1\nvalue = 83.0"] ;
126 -> 127 ;
128 [label="squared_error = 0.0\nsamples = 3\nvalue = 84.0"] ;
126 -> 128 ;
129 [label="Sales <= 17.8\nsquared_error = 0.2\nsamples = 5\nvalue = 85.3"] ;
125 -> 129 ;
130 [label="squared_error = 0.0\nsamples = 3\nvalue = 85.0"] ;
129 -> 130 ;
131 [label="squared_error = 0.0\nsamples = 2\nvalue = 86.0"] ;
129 -> 131 ;
132 [label="Income <= 96.0\nsquared_error = 12.4\nsamples = 35\nvalue = 94.0"] ;
120 -> 132 ;
133 [label="Income <= 92.5\nsquared_error = 4.1\nsamples = 26\nvalue = 92.1"] ;
132 -> 133 ;
134 [label="Income <= 90.5\nsquared_error = 0.8\nsamples = 13\nvalue = 90.3"] ;
133 -> 134 ;
135 [label="Income <= 89.5\nsquared_error = 0.2\nsamples = 8\nvalue = 89.8"] ;
134 -> 135 ;
136 [label="squared_error = 0.0\nsamples = 2\nvalue = 89.0"] ;
135 -> 136 ;
137 [label="squared_error = 0.0\nsamples = 6\nvalue = 90.0"] ;
135 -> 137 ;
138 [label="Income <= 91.5\nsquared_error = 0.2\nsamples = 5\nvalue = 91.5"] ;
134 -> 138 ;
139 [label="squared_error = 0.0\nsamples = 2\nvalue = 91.0"] ;
138 -> 139 ;
140 [label="squared_error = 0.0\nsamples = 3\nvalue = 92.0"] ;
138 -> 140 ;
141 [label="Income <= 93.5\nsquared_error = 0.6\nsamples = 13\nvalue = 94.0"] ;
133 -> 141 ;
142 [label="squared_error = 0.0\nsamples = 4\nvalue = 93.0"] ;
141 -> 142 ;
143 [label="Income <= 94.5\nsquared_error = 0.2\nsamples = 9\nvalue = 94.5"] ;
141 -> 143 ;
144 [label="squared_error = 0.0\nsamples = 6\nvalue = 94.0"] ;
143 -> 144 ;
145 [label="squared_error = 0.0\nsamples = 3\nvalue = 95.0"] ;
143 -> 145 ;
146 [label="Income <= 98.5\nsquared_error = 1.2\nsamples = 9\nvalue = 98.8"] ;
132 -> 146 ;
147 [label="Sales <= 15.5\nsquared_error = 0.2\nsamples = 4\nvalue = 97.5"] ;
146 -> 147 ;
148 [label="squared_error = 0.0\nsamples = 2\nvalue = 98.0"] ;
147 -> 148 ;
149 [label="squared_error = 0.0\nsamples = 2\nvalue = 97.0"] ;
147 -> 149 ;
150 [label="Income <= 99.5\nsquared_error = 0.2\nsamples = 5\nvalue = 99.5"] ;
146 -> 150 ;
151 [label="squared_error = 0.0\nsamples = 2\nvalue = 99.0"] ;
150 -> 151 ;
152 [label="squared_error = 0.0\nsamples = 3\nvalue = 100.0"] ;
150 -> 152 ;
}